Language model created by QuickLM on Sun May 31 06:04:53 EDT 2015
Copyright (c) 1996-2010 Carnegie Mellon University and Alexander I. Rudnicky

The model is in standard ARPA format, designed by Doug Paul while he was at MITRE.

The code that was used to produce this language model is available in Open Source.
Please visit http://www.speech.cs.cmu.edu/tools/ for more information

The (fixed) discount mass is 0.5. The backoffs are computed using the ratio method.
This model based on a corpus of 1 sentences and 5 words

\data\
ngram 1=5
ngram 2=4
ngram 3=3

\1-grams:
-1.0000 </s> -0.3010
-1.0000 <s> -0.2553
-1.0000 DOOR -0.2553
-1.0000 MINION -0.2553
-1.0000 OPEN -0.2553

\2-grams:
-0.3010 <s> MINION 0.0000
-0.3010 DOOR </s> -0.3010
-0.3010 MINION OPEN 0.0000
-0.3010 OPEN DOOR 0.0000

\3-grams:
-0.3010 <s> MINION OPEN
-0.3010 MINION OPEN DOOR
-0.3010 OPEN DOOR </s>

\end\
