Language model created by QuickLM on Tue May 26 01:38:46 EDT 2015
Copyright (c) 1996-2010 Carnegie Mellon University and Alexander I. Rudnicky

The model is in standard ARPA format, designed by Doug Paul while he was at MITRE.

The code that was used to produce this language model is available in Open Source.
Please visit http://www.speech.cs.cmu.edu/tools/ for more information

The (fixed) discount mass is 0.5. The backoffs are computed using the ratio method.
This model based on a corpus of 8 sentences and 15 words

\data\
ngram 1=15
ngram 2=22
ngram 3=22

\1-grams:
-1.0212 </s> -0.3010
-1.0212 <s> -0.2460
-1.6232 DO -0.2906
-1.9243 GO -0.2958
-1.6232 HAVE -0.2798
-1.6232 I -0.2906
-1.3222 MEETINGS -0.2688
-1.3222 MINION -0.2341
-1.6232 SLEEP -0.2576
-1.9243 TO -0.2906
-1.6232 TODAY -0.2576
-1.6232 TOMORROW -0.2576
-1.9243 UP -0.2576
-1.9243 WAKE -0.2958
-1.6232 WHAT -0.2798

\2-grams:
-0.9031 <s> MEETINGS -0.1761
-0.6021 <s> MINION 0.0000
-0.9031 <s> WHAT 0.0000
-0.3010 DO I 0.0000
-0.3010 GO TO 0.0000
-0.6021 HAVE TODAY 0.0000
-0.6021 HAVE TOMORROW 0.0000
-0.3010 I HAVE 0.0000
-0.6021 MEETINGS DO 0.0000
-0.9031 MEETINGS TODAY 0.0000
-0.9031 MEETINGS TOMORROW 0.0000
-0.9031 MINION </s> -0.3010
-0.9031 MINION GO 0.0000
-0.9031 MINION SLEEP 0.0000
-0.9031 MINION WAKE 0.0000
-0.3010 SLEEP </s> -0.3010
-0.3010 TO SLEEP 0.0000
-0.3010 TODAY </s> -0.3010
-0.3010 TOMORROW </s> -0.3010
-0.3010 UP </s> -0.3010
-0.3010 WAKE UP 0.0000
-0.3010 WHAT MEETINGS -0.1761

\3-grams:
-0.6021 <s> MEETINGS TODAY
-0.6021 <s> MEETINGS TOMORROW
-0.9031 <s> MINION </s>
-0.9031 <s> MINION GO
-0.9031 <s> MINION SLEEP
-0.9031 <s> MINION WAKE
-0.3010 <s> WHAT MEETINGS
-0.3010 DO I HAVE
-0.3010 GO TO SLEEP
-0.3010 HAVE TODAY </s>
-0.3010 HAVE TOMORROW </s>
-0.6021 I HAVE TODAY
-0.6021 I HAVE TOMORROW
-0.3010 MEETINGS DO I
-0.3010 MEETINGS TODAY </s>
-0.3010 MEETINGS TOMORROW </s>
-0.3010 MINION GO TO
-0.3010 MINION SLEEP </s>
-0.3010 MINION WAKE UP
-0.3010 TO SLEEP </s>
-0.3010 WAKE UP </s>
-0.3010 WHAT MEETINGS DO

\end\
